digraph Tree {
node [shape=box, style="filled, rounded", color="black", fontname="helvetica"] ;
edge [fontname="helvetica"] ;
0 [label="X <= -0.647\nsquared_error = 0.142\nsamples = 100\nvalue = 0.78", fillcolor="#f7dac5"] ;
1 [label="X <= -0.801\nsquared_error = 0.087\nsamples = 18\nvalue = 1.12", fillcolor="#ea9b62"] ;
0 -> 1 [labeldistance=2.5, labelangle=45, headlabel="True"] ;
2 [label="squared_error = 0.069\nsamples = 8\nvalue = 1.262", fillcolor="#e58139"] ;
1 -> 2 ;
3 [label="squared_error = 0.072\nsamples = 10\nvalue = 1.007", fillcolor="#efb083"] ;
1 -> 3 ;
4 [label="X <= 0.618\nsquared_error = 0.123\nsamples = 82\nvalue = 0.705", fillcolor="#fae8db"] ;
0 -> 4 [labeldistance=2.5, labelangle=-45, headlabel="False"] ;
5 [label="squared_error = 0.089\nsamples = 60\nvalue = 0.58", fillcolor="#ffffff"] ;
4 -> 5 ;
6 [label="squared_error = 0.059\nsamples = 22\nvalue = 1.043", fillcolor="#eda979"] ;
4 -> 6 ;
}